{"downUpRange":"[]","oBetaPress":{"layers":[{"0":{},"1":{},"2":{},"3":{},"4":{},"5":{},"6":{},"7":{},"8":{}},{"0":{"bias":-2.8521267980337535,"weights":{"0":0.0598250413313508,"1":-212.712741174872,"2":-228.57837227378337,"3":19.543766683174248,"4":-8.631651934105937,"5":117.82899369184479,"6":-185.94118257921025,"7":90.17341704991135,"8":-267.77216966352063}},"1":{"bias":-0.11031141126811632,"weights":{"0":0.029766226094216114,"1":498.9250563339719,"2":-374.630243926351,"3":-43.179542833189004,"4":228.85802185489752,"5":-255.15099132510048,"6":273.4480765436012,"7":157.35820923004903,"8":-384.87535643623096}},"2":{"bias":-5.497023478001372,"weights":{"0":-0.14856251319870353,"1":-301.69353000211106,"2":-85.1008710732864,"3":141.7790921496274,"4":-138.76411077945073,"5":168.6699641149818,"6":129.9596295007102,"7":-81.73716863136522,"8":-120.51923626243753}},"3":{"bias":-4.67812938029115,"weights":{"0":-0.16987403314560653,"1":85.08709893199513,"2":81.53616835320925,"3":148.1941234863857,"4":24.335932786083024,"5":-172.1329709203011,"6":121.44918912675557,"7":-317.843943898643,"8":212.2734208358381}}},{"topleft":{"bias":-2.22236222412075,"weights":{"0":-1.643801961617807,"1":3.8999794940939876,"2":-15.397116757418843,"3":56.76917578437602}},"topright":{"bias":-0.8507504174869653,"weights":{"0":2.5338481481417263,"1":0.574925258068046,"2":-65.82952676900454,"3":-110.54924531656361}},"botleft":{"bias":-1.5342741913379627,"weights":{"0":-12.418509997382303,"1":-3.687919454895898,"2":-20.459537364225042,"3":5.478439858318947}},"botright":{"bias":-20.001279194614447,"weights":{"0":-309.6214884012929,"1":46.948348553991224,"2":-10.349278185921639,"3":-81.42537165259816}},"space":{"bias":0.3410971112986096,"weights":{"0":-0.3428417979816863,"1":-4.626368545368664,"2":74.5210435702585,"3":-10.805634903655163}}}],"outputLookup":true,"inputLookup":false},"oGammaPress":{"layers":[{"0":{},"1":{},"2":{},"3":{},"4":{},"5":{},"6":{},"7":{},"8":{}},{"0":{"bias":-6.287489608076298,"weights":{"0":-0.1500932238996029,"1":-95.93104322504745,"2":95.81174317504819,"3":75.90729784887164,"4":176.27241052127232,"5":-342.7722833797609,"6":249.68153434679655,"7":-63.55577867654598,"8":25.79057679207891}},"1":{"bias":-7.881502782606894,"weights":{"0":0.0016179289668798447,"1":-56.85925390651836,"2":-125.94950751484487,"3":274.1250755838384,"4":-96.80076186245216,"5":162.8075094550521,"6":-186.3682151471645,"7":48.84384751162092,"8":55.803845485250974}},"2":{"bias":-0.6262430867690468,"weights":{"0":0.11268713846802714,"1":-219.74993943651046,"2":-87.259340977219,"3":-115.19967827875315,"4":291.5769348952068,"5":-138.86550936311826,"6":26.448780741977934,"7":-82.49148909734362,"8":-30.334061276954113}},"3":{"bias":-4.011270862333688,"weights":{"0":-0.040551388729363674,"1":-84.76131745063681,"2":235.72128024456737,"3":74.26248034431345,"4":64.52677980017876,"5":-12.805751787373982,"6":-131.95631781809243,"7":-39.521843127610595,"8":82.86015755536953}}},{"topleft":{"bias":-1.184386690138632,"weights":{"0":77.85922488855165,"1":-91.02375571242946,"2":0.021173567022676188,"3":17.158463107754798}},"topright":{"bias":-2.4934081590383217,"weights":{"0":23.84186866818188,"1":-77.31209889684665,"2":2.199419142045186,"3":2.8384112709628666}},"botleft":{"bias":-1.6384073976413909,"weights":{"0":-39.98576644166646,"1":33.36129718151967,"2":-2.928553283202316,"3":-8.120618308176372}},"botright":{"bias":-2.799714272168385,"weights":{"0":-170.16607400947365,"1":122.9413569625645,"2":1.1986692215698385,"3":-10.974911355666935}},"space":{"bias":0.6655103878094496,"weights":{"0":-104.12401581948075,"1":-218.25411072352207,"2":-2.6761882561183716,"3":0.134414238081784}}}],"outputLookup":true,"inputLookup":false},"aZYPress":{"layers":[{"0":{},"1":{},"2":{},"3":{},"4":{},"5":{},"6":{},"7":{},"8":{}},{"0":{"bias":-10.886696861846296,"weights":{"0":-0.09199194693937898,"1":98.76874635385825,"2":23.144209945577217,"3":370.55748095725664,"4":28.989376398052013,"5":-90.29327520767579,"6":27.116037635468775,"7":52.708433181724516,"8":-89.77761971967736}},"1":{"bias":6.860410922854368,"weights":{"0":-0.027064480725675827,"1":322.7556771797108,"2":-153.17704545715233,"3":-25.87025699384318,"4":236.6442702447799,"5":252.31828341669703,"6":-454.03393041273347,"7":178.88254580963374,"8":-178.21124138445882}},"2":{"bias":-5.719971799124526,"weights":{"0":0.07486073179170488,"1":-110.51680162759438,"2":131.52888447198723,"3":108.14116922220991,"4":-232.34616431934077,"5":-217.42468662407384,"6":-55.78977746913882,"7":333.86445432514347,"8":-37.60539050577136}},"3":{"bias":3.642774379886852,"weights":{"0":-0.08638935182243586,"1":-57.40318129450595,"2":-15.493335774815073,"3":-77.71227594909317,"4":94.77193961138431,"5":109.51887566105557,"6":178.96116728974894,"7":-254.02767026070165,"8":48.13988099073486}}},{"topleft":{"bias":-3.4876714245386697,"weights":{"0":5.663358907725462,"1":2.2364312489947653,"2":0.22169083768795278,"3":1.2563951500425987}},"topright":{"bias":-22.205765344783558,"weights":{"0":-3.769674323021413,"1":12.958238349236906,"2":8.131076841714389,"3":9.050613928266202}},"botleft":{"bias":105.89625046946031,"weights":{"0":-33.1390051934723,"1":-113.52826377560643,"2":-39.88281268174469,"3":-110.40680310376031}},"botright":{"bias":-237.06942453221856,"weights":{"0":-96.57512080336646,"1":40.18813682590629,"2":196.49216636008515,"3":82.14579518272426}},"space":{"bias":195.8092313612544,"weights":{"0":-270.7669733132758,"1":-141.6693956752834,"2":-211.48513347195325,"3":-66.75089916069598}}}],"outputLookup":true,"inputLookup":false}}